<?xml version="1.0"?>
<opencv_storage>
<cascade>
  <stageType>BOOST</stageType>
  <featureType>LBP</featureType>
  <height>48</height>
  <width>48</width>
  <stageParams>
    <boostType>GAB</boostType>
    <minHitRate>9.9500000476837158e-01</minHitRate>
    <maxFalseAlarm>1.0000000149011612e-01</maxFalseAlarm>
    <weightTrimRate>9.4999998807907104e-01</weightTrimRate>
    <maxDepth>1</maxDepth>
    <maxWeakCount>100</maxWeakCount></stageParams>
  <featureParams>
    <maxCatCount>256</maxCatCount>
    <featSize>1</featSize></featureParams>
  <stageNum>10</stageNum>
  <stages>
    <!-- stage 0 -->
    <_>
      <maxWeakCount>2</maxWeakCount>
      <stageThreshold>-1.1980715394020081e-01</stageThreshold>
      <weakClassifiers>
        <_>
          <internalNodes>
            0 -1 0 -787745569 -618954669 1359077785 -720273401
            -1987403089 -1089828726 -1458519349 -214708203</internalNodes>
          <leafValues>
            -9.8492461442947388e-01 9.0073531866073608e-01</leafValues></_>
        <_>
          <internalNodes>
            0 -1 27 -783552033 -183533552 1073791001 1426673667
            -1433564501 -661946358 335587487 -863453030</internalNodes>
          <leafValues>
            -9.5597046613693237e-01 8.6511749029159546e-01</leafValues></_></weakClassifiers></_>
    <!-- stage 1 -->
    <_>
      <maxWeakCount>3</maxWeakCount>
      <stageThreshold>8.1347548961639404e-01</stageThreshold>
      <weakClassifiers>
        <_>
          <internalNodes>
            0 -1 17 -805273155 1359020037 16 87130256 276824193 8
            -1340043134 -888471422</internalNodes>
          <leafValues>
            -9.4103193283081055e-01 8.9906543493270874e-01</leafValues></_>
        <_>
          <internalNodes>
            0 -1 32 -2012962780 16842752 16793892 285278211 -2013233141
            -1979580416 16851466 -179703805</internalNodes>
          <leafValues>
            -9.4889682531356812e-01 8.5070449113845825e-01</leafValues></_>
        <_>
          <internalNodes>
            0 -1 12 -2147245693 268632064 -536739839 1342308368 98438
            65536 35466 -2146204145</internalNodes>
          <leafValues>
            -8.6888790130615234e-01 9.0380293130874634e-01</leafValues></_></weakClassifiers></_>
    <!-- stage 2 -->
    <_>
      <maxWeakCount>3</maxWeakCount>
      <stageThreshold>7.7500051259994507e-01</stageThreshold>
      <weakClassifiers>
        <_>
          <internalNodes>
            0 -1 2 -787361197 1461288971 275 -721317887 1342210064
            -87785312 98305 -1484275198</internalNodes>
          <leafValues>
            -9.6455693244934082e-01 8.7568557262420654e-01</leafValues></_>
        <_>
          <internalNodes>
            0 -1 8 -268185379 -783204095 16661 1427325065 -1073706811
            1074299009 -2147383039 59441679</internalNodes>
          <leafValues>
            -9.2078638076782227e-01 8.5559570789337158e-01</leafValues></_>
        <_>
          <internalNodes>
            0 -1 7 -653177581 -686731264 134512659 -1828646903
            1208002570 -1962901488 199211 -16285653</internalNodes>
          <leafValues>
            -9.1146141290664673e-01 8.8396179676055908e-01</leafValues></_></weakClassifiers></_>
    <!-- stage 3 -->
    <_>
      <maxWeakCount>3</maxWeakCount>
      <stageThreshold>7.7533382177352905e-01</stageThreshold>
      <weakClassifiers>
        <_>
          <internalNodes>
            0 -1 30 -639895085 -250543521 217617 -719199997 -938827573
            -1165410302 -922694950 -1060967718</internalNodes>
          <leafValues>
            -9.4210523366928101e-01 8.1138789653778076e-01</leafValues></_>
        <_>
          <internalNodes>
            0 -1 18 -618669601 -721338356 -988725231 357597440
            -2147450879 -1601699840 -2130644861 -272249885</internalNodes>
          <leafValues>
            -8.9843147993087769e-01 8.3058887720108032e-01</leafValues></_>
        <_>
          <internalNodes>
            0 -1 24 -715136003 1561427974 1130769 1343754256 -1475620709
            -2104983512 545358571 -947266677</internalNodes>
          <leafValues>
            -8.4711688756942749e-01 8.8685017824172974e-01</leafValues></_></weakClassifiers></_>
    <!-- stage 4 -->
    <_>
      <maxWeakCount>4</maxWeakCount>
      <stageThreshold>-2.3108603060245514e-01</stageThreshold>
      <weakClassifiers>
        <_>
          <internalNodes>
            0 -1 6 -58154017 1310007654 -2147237832 -82992961
            -2113498933 -89882486 -1203601249 -138686415</internalNodes>
          <leafValues>
            -9.6675902605056763e-01 7.6936316490173340e-01</leafValues></_>
        <_>
          <internalNodes>
            0 -1 3 -641608993 -788398003 16798039 -1056853999 427935882
            16384 1631830787 1972363439</internalNodes>
          <leafValues>
            -8.9340913295745850e-01 7.6001942157745361e-01</leafValues></_>
        <_>
          <internalNodes>
            0 -1 26 -108007201 -1072721507 1073872919 1078706179
            -2012643192 -1308557183 -2146531128 -544480849</internalNodes>
          <leafValues>
            -8.4484636783599854e-01 8.0092346668243408e-01</leafValues></_>
        <_>
          <internalNodes>
            0 -1 1 1090683355 -1655701439 1090586653 -585809788 8520643
            -91740000 -1073706833 -1089535453</internalNodes>
          <leafValues>
            -8.2526987791061401e-01 8.3715015649795532e-01</leafValues></_></weakClassifiers></_>
    <!-- stage 5 -->
    <_>
      <maxWeakCount>4</maxWeakCount>
      <stageThreshold>-1.6910187900066376e-01</stageThreshold>
      <weakClassifiers>
        <_>
          <internalNodes>
            0 -1 20 -237203245 -779902847 71303181 353697797 -1946122197
            -1333690366 16777483 1393512475</internalNodes>
          <leafValues>
            -9.3442624807357788e-01 7.6388889551162720e-01</leafValues></_>
        <_>
          <internalNodes>
            0 -1 31 -975245345 -184553601 -838860801 100648959
            -1394811492 -1914778209 -553648129 -536883201</internalNodes>
          <leafValues>
            -7.5515276193618774e-01 8.8086950778961182e-01</leafValues></_>
        <_>
          <internalNodes>
            0 -1 10 -796603774 -783810557 360591 1427111936 -1065123654
            -2145779576 718112907 -643104561</internalNodes>
          <leafValues>
            -8.8023531436920166e-01 7.4107241630554199e-01</leafValues></_>
        <_>
          <internalNodes>
            0 -1 14 -662576705 -1056604133 -872414677 1901037707
            139362443 -1744142328 -1056407398 -284897198</internalNodes>
          <leafValues>
            -8.8462996482849121e-01 7.6469016075134277e-01</leafValues></_></weakClassifiers></_>
    <!-- stage 6 -->
    <_>
      <maxWeakCount>4</maxWeakCount>
      <stageThreshold>-4.9704510718584061e-02</stageThreshold>
      <weakClassifiers>
        <_>
          <internalNodes>
            0 -1 4 -77 -780353474 -8263529 1363279805 2143387667
            1073741823 1744076414 -143132813</internalNodes>
          <leafValues>
            -7.7622377872467041e-01 8.4015595912933350e-01</leafValues></_>
        <_>
          <internalNodes>
            0 -1 13 -774251593 -712990300 -2130690037 -775684004
            -1316257457 -1962932222 1073870859 -1953550327</internalNodes>
          <leafValues>
            -7.7827429771423340e-01 8.1919825077056885e-01</leafValues></_>
        <_>
          <internalNodes>
            0 -1 34 -506993957 1342636127 98313 1078575107 -1073119093
            -636944248 -1069444965 1150804107</internalNodes>
          <leafValues>
            -8.2030522823333740e-01 7.4420070648193359e-01</leafValues></_>
        <_>
          <internalNodes>
            0 -1 19 -184036646 -1828470720 37273 117686281 -2138931052
            -2113830912 -1970503269 186614283</internalNodes>
          <leafValues>
            -8.5105437040328979e-01 7.6059287786483765e-01</leafValues></_></weakClassifiers></_>
    <!-- stage 7 -->
    <_>
      <maxWeakCount>4</maxWeakCount>
      <stageThreshold>-1.2342777848243713e-01</stageThreshold>
      <weakClassifiers>
        <_>
          <internalNodes>
            0 -1 25 588772187 1595016449 1145114649 -654290940
            -803053134 -1291845582 352946681 -354756449</internalNodes>
          <leafValues>
            -9.0555554628372192e-01 7.2852236032485962e-01</leafValues></_>
        <_>
          <internalNodes>
            0 -1 21 -2129427808 -1862266621 553703449 -1693741048
            -939162997 -184025088 36059 -68189989</internalNodes>
          <leafValues>
            -7.9472380876541138e-01 8.0038219690322876e-01</leafValues></_>
        <_>
          <internalNodes>
            0 -1 16 1359155665 1561395409 268968439 1895907349
            1711276161 -1166016382 402721515 -72400755</internalNodes>
          <leafValues>
            -7.6718056201934814e-01 8.0860352516174316e-01</leafValues></_>
        <_>
          <internalNodes>
            0 -1 33 -251035143 1095835675 4353 353878293 -1073643506
            1082130432 -1471496037 1938540687</internalNodes>
          <leafValues>
            -8.6582988500595093e-01 7.3332434892654419e-01</leafValues></_></weakClassifiers></_>
    <!-- stage 8 -->
    <_>
      <maxWeakCount>4</maxWeakCount>
      <stageThreshold>-1.1080399155616760e-01</stageThreshold>
      <weakClassifiers>
        <_>
          <internalNodes>
            0 -1 23 1902232571 -884965374 -2147483513 -132857807
            -2112650741 -1425964768 -2079487862 -620189506</internalNodes>
          <leafValues>
            -8.1407034397125244e-01 7.7573531866073608e-01</leafValues></_>
        <_>
          <internalNodes>
            0 -1 5 -272908357 -4097 -1 -1 1415955708 -705202689
            -151009793 -168299009</internalNodes>
          <leafValues>
            -7.1959966421127319e-01 8.4168416261672974e-01</leafValues></_>
        <_>
          <internalNodes>
            0 -1 28 -548015139 -1006550780 8 -796295035 -1069465428
            -486309840 134334636 -3419189</internalNodes>
          <leafValues>
            -8.3750277757644653e-01 7.7099591493606567e-01</leafValues></_>
        <_>
          <internalNodes>
            0 -1 22 -788400993 -1400863742 562053265 -920636288
            -2147483127 -1056931832 -1719104353 -1047424597</internalNodes>
          <leafValues>
            -9.0941375494003296e-01 7.1567606925964355e-01</leafValues></_></weakClassifiers></_>
    <!-- stage 9 -->
    <_>
      <maxWeakCount>4</maxWeakCount>
      <stageThreshold>-1.4379605650901794e-01</stageThreshold>
      <weakClassifiers>
        <_>
          <internalNodes>
            0 -1 11 -732886637 -2050948455 -998235321 -1647083453
            -2004842326 -1459093365 -1912307172 -471891952</internalNodes>
          <leafValues>
            -8.8266664743423462e-01 7.5661373138427734e-01</leafValues></_>
        <_>
          <internalNodes>
            0 -1 29 -1876700839 -720531456 -1073643311 71651341
            -1597968356 -100499199 1216921768 -824193825</internalNodes>
          <leafValues>
            -8.2938349246978760e-01 7.9066675901412964e-01</leafValues></_>
        <_>
          <internalNodes>
            0 -1 15 -1055793665 -788381543 16847621 1426968711 2097815
            -1031274357 1132528078 -720664439</internalNodes>
          <leafValues>
            -8.4905141592025757e-01 7.3509150743484497e-01</leafValues></_>
        <_>
          <internalNodes>
            0 -1 9 -649484901 -1788624865 1075904786 -1056391159
            -2013109365 -662069109 1091655178 -640719473</internalNodes>
          <leafValues>
            -7.8568220138549805e-01 7.9725527763366699e-01</leafValues></_></weakClassifiers></_></stages>
  <features>
    <_>
      <rect>
        0 3 9 9</rect></_>
    <_>
      <rect>
        0 10 11 3</rect></_>
    <_>
      <rect>
        0 13 7 4</rect></_>
    <_>
      <rect>
        0 20 4 9</rect></_>
    <_>
      <rect>
        0 24 2 7</rect></_>
    <_>
      <rect>
        0 28 4 5</rect></_>
    <_>
      <rect>
        1 2 9 11</rect></_>
    <_>
      <rect>
        1 21 7 9</rect></_>
    <_>
      <rect>
        2 14 7 9</rect></_>
    <_>
      <rect>
        2 23 7 8</rect></_>
    <_>
      <rect>
        3 28 5 6</rect></_>
    <_>
      <rect>
        4 8 9 5</rect></_>
    <_>
      <rect>
        4 21 3 8</rect></_>
    <_>
      <rect>
        4 23 8 8</rect></_>
    <_>
      <rect>
        5 5 6 5</rect></_>
    <_>
      <rect>
        7 31 10 5</rect></_>
    <_>
      <rect>
        7 33 7 2</rect></_>
    <_>
      <rect>
        8 30 10 5</rect></_>
    <_>
      <rect>
        11 28 7 6</rect></_>
    <_>
      <rect>
        12 0 5 3</rect></_>
    <_>
      <rect>
        14 13 6 5</rect></_>
    <_>
      <rect>
        14 17 4 5</rect></_>
    <_>
      <rect>
        15 16 9 6</rect></_>
    <_>
      <rect>
        16 1 8 5</rect></_>
    <_>
      <rect>
        18 1 5 4</rect></_>
    <_>
      <rect>
        21 7 9 8</rect></_>
    <_>
      <rect>
        21 23 5 8</rect></_>
    <_>
      <rect>
        22 6 6 5</rect></_>
    <_>
      <rect>
        22 25 4 7</rect></_>
    <_>
      <rect>
        22 26 5 7</rect></_>
    <_>
      <rect>
        24 1 8 14</rect></_>
    <_>
      <rect>
        24 26 6 7</rect></_>
    <_>
      <rect>
        30 29 5 6</rect></_>
    <_>
      <rect>
        36 24 4 8</rect></_>
    <_>
      <rect>
        42 27 2 6</rect></_></features></cascade>
</opencv_storage>
